digraph Tree {
node [shape=box, style="filled, rounded", color="black", fontname="helvetica"] ;
edge [fontname="helvetica"] ;
0 [label="Site EUI (kBtu/ft²) <= 25.25\nfriedman_mse = 0.999\nsamples = 6622\nvalue = 0.036", fillcolor="#f4cbae"] ;
1 [label="Largest Property Use Type_Multifamily Housing <= 0.5\nfriedman_mse = 0.596\nsamples = 351\nvalue = 0.635", fillcolor="#f2bf9a"] ;
0 -> 1 [labeldistance=2.5, labelangle=45, headlabel="True"] ;
2 [label="Property Id <= 2658213.5\nfriedman_mse = 0.98\nsamples = 100\nvalue = 0.14", fillcolor="#f4c9ab"] ;
1 -> 2 ;
3 [label="friedman_mse = 0.0\nsamples = 6\nvalue = 0.161", fillcolor="#f4c9aa"] ;
2 -> 3 ;
4 [label="DOF Gross Floor Area <= 362750.0\nfriedman_mse = 0.993\nsamples = 94\nvalue = 0.085", fillcolor="#f4caac"] ;
2 -> 4 ;
5 [label="(...)", fillcolor="#C0C0C0"] ;
4 -> 5 ;
8 [label="(...)", fillcolor="#C0C0C0"] ;
4 -> 8 ;
9 [label="log_Water Intensity (All Water Sources) (gal/ft²) <= 1.773\nfriedman_mse = 0.307\nsamples = 251\nvalue = 0.833", fillcolor="#f1bb94"] ;
1 -> 9 ;
10 [label="friedman_mse = 0.988\nsamples = 9\nvalue = 0.002", fillcolor="#f5ccaf"] ;
9 -> 10 ;
11 [label="Weather Normalized Site Electricity Intensity (kWh/ft²) <= 3.85\nfriedman_mse = 0.261\nsamples = 242\nvalue = 0.86", fillcolor="#f1ba93"] ;
9 -> 11 ;
12 [label="(...)", fillcolor="#C0C0C0"] ;
11 -> 12 ;
15 [label="(...)", fillcolor="#C0C0C0"] ;
11 -> 15 ;
18 [label="log_Water Intensity (All Water Sources) (gal/ft²) <= -1.171\nfriedman_mse = 1.0\nsamples = 6271\nvalue = 0.002", fillcolor="#f5ccaf"] ;
0 -> 18 [labeldistance=2.5, labelangle=-45, headlabel="False"] ;
19 [label="friedman_mse = 0.64\nsamples = 10\nvalue = 0.282", fillcolor="#f3c6a6"] ;
18 -> 19 ;
20 [label="Weather Normalized Site Electricity Intensity (kWh/ft²) <= 0.35\nfriedman_mse = 1.0\nsamples = 6261\nvalue = 0.001", fillcolor="#f5ccaf"] ;
18 -> 20 ;
21 [label="Site EUI (kBtu/ft²) <= 63.85\nfriedman_mse = 0.816\nsamples = 14\nvalue = 0.429", fillcolor="#f3c3a1"] ;
20 -> 21 ;
22 [label="(...)", fillcolor="#C0C0C0"] ;
21 -> 22 ;
23 [label="(...)", fillcolor="#C0C0C0"] ;
21 -> 23 ;
24 [label="Property Id <= 5864827.5\nfriedman_mse = 1.0\nsamples = 6247\nvalue = 0.0", fillcolor="#f5ccaf"] ;
20 -> 24 ;
25 [label="(...)", fillcolor="#C0C0C0"] ;
24 -> 25 ;
28 [label="(...)", fillcolor="#C0C0C0"] ;
24 -> 28 ;
}